<?xml version="1.0"?>
<opencv_storage>
<stage8>
  <maxWeakCount>8</maxWeakCount>
  <stageThreshold>-8.4067696332931519e-01</stageThreshold>
  <weakClassifiers>
    <_>
      <internalNodes>
        0 -1 13161 -5.0059717614203691e-04</internalNodes>
      <leafValues>
        -6.2025314569473267e-01 5.1707315444946289e-01</leafValues></_>
    <_>
      <internalNodes>
        0 -1 12672 1.0869479738175869e-02</internalNodes>
      <leafValues>
        -7.6649588346481323e-01 2.5892758369445801e-01</leafValues></_>
    <_>
      <internalNodes>
        0 -1 27385 2.0761143416166306e-02</internalNodes>
      <leafValues>
        -4.2683029174804688e-01 4.6146506071090698e-01</leafValues></_>
    <_>
      <internalNodes>
        0 -1 19630 9.8865572363138199e-04</internalNodes>
      <leafValues>
        -3.1888452172279358e-01 5.6622791290283203e-01</leafValues></_>
    <_>
      <internalNodes>
        0 -1 45027 2.2279371041804552e-03</internalNodes>
      <leafValues>
        2.0899647474288940e-01 -8.2902061939239502e-01</leafValues></_>
    <_>
      <internalNodes>
        0 -1 10953 1.5871599316596985e-01</internalNodes>
      <leafValues>
        -2.7681356668472290e-01 6.9405663013458252e-01</leafValues></_>
    <_>
      <internalNodes>
        0 -1 45055 4.1402908973395824e-03</internalNodes>
      <leafValues>
        -3.1105980277061462e-01 6.0409921407699585e-01</leafValues></_>
    <_>
      <internalNodes>
        0 -1 33195 3.0618149321526289e-04</internalNodes>
      <leafValues>
        -4.2493912577629089e-01 4.4436374306678772e-01</leafValues></_></weakClassifiers></stage8>
</opencv_storage>
