<?xml version="1.0"?>
<opencv_storage>
<stage3>
  <maxWeakCount>6</maxWeakCount>
  <stageThreshold>-8.7875097990036011e-01</stageThreshold>
  <weakClassifiers>
    <_>
      <internalNodes>
        0 -1 19882 -1.3076654076576233e-01</internalNodes>
      <leafValues>
        6.8604654073715210e-01 -5.0344824790954590e-01</leafValues></_>
    <_>
      <internalNodes>
        0 -1 18963 1.5037493780255318e-02</internalNodes>
      <leafValues>
        -7.3454606533050537e-01 4.4787308573722839e-01</leafValues></_>
    <_>
      <internalNodes>
        0 -1 788 6.4799701794981956e-03</internalNodes>
      <leafValues>
        -4.7015187144279480e-01 5.8676785230636597e-01</leafValues></_>
    <_>
      <internalNodes>
        0 -1 32329 4.1423615766689181e-04</internalNodes>
      <leafValues>
        -7.2737693786621094e-01 3.1624311208724976e-01</leafValues></_>
    <_>
      <internalNodes>
        0 -1 41034 -1.7415933543816209e-03</internalNodes>
      <leafValues>
        5.8252906799316406e-01 -4.0963214635848999e-01</leafValues></_>
    <_>
      <internalNodes>
        0 -1 39424 -6.7246347665786743e-02</internalNodes>
      <leafValues>
        7.2327065467834473e-01 -4.0550965070724487e-01</leafValues></_></weakClassifiers></stage3>
</opencv_storage>
