<?xml version="1.0"?>
<opencv_storage>
<stage6>
  <maxWeakCount>7</maxWeakCount>
  <stageThreshold>-5.2567142248153687e-01</stageThreshold>
  <weakClassifiers>
    <_>
      <internalNodes>
        0 -1 31272 1.5034688636660576e-02</internalNodes>
      <leafValues>
        -3.6434108018875122e-01 5.8333331346511841e-01</leafValues></_>
    <_>
      <internalNodes>
        0 -1 20478 4.3429851531982422e-02</internalNodes>
      <leafValues>
        -3.9988645911216736e-01 4.9837589263916016e-01</leafValues></_>
    <_>
      <internalNodes>
        0 -1 12612 1.2169623747467995e-02</internalNodes>
      <leafValues>
        -2.9659262299537659e-01 6.9820445775985718e-01</leafValues></_>
    <_>
      <internalNodes>
        0 -1 43976 -5.7476505637168884e-02</internalNodes>
      <leafValues>
        7.0099794864654541e-01 -2.4560126662254333e-01</leafValues></_>
    <_>
      <internalNodes>
        0 -1 38705 -7.2154216468334198e-03</internalNodes>
      <leafValues>
        6.9441634416580200e-01 -2.3469847440719604e-01</leafValues></_>
    <_>
      <internalNodes>
        0 -1 38705 3.0735563486814499e-03</internalNodes>
      <leafValues>
        -2.1767289936542511e-01 6.8940323591232300e-01</leafValues></_>
    <_>
      <internalNodes>
        0 -1 32360 9.0355589054524899e-04</internalNodes>
      <leafValues>
        -6.0597962141036987e-01 3.2604530453681946e-01</leafValues></_></weakClassifiers></stage6>
</opencv_storage>
