<?xml version="1.0"?>
<opencv_storage>
<stage7>
  <maxWeakCount>9</maxWeakCount>
  <stageThreshold>-5.9381484985351562e-01</stageThreshold>
  <weakClassifiers>
    <_>
      <internalNodes>
        0 -1 26246 4.5116469264030457e-03</internalNodes>
      <leafValues>
        4.9763032793998718e-01 -7.0149254798889160e-01</leafValues></_>
    <_>
      <internalNodes>
        0 -1 6070 1.2011995539069176e-02</internalNodes>
      <leafValues>
        -2.2666165232658386e-01 9.3012577295303345e-01</leafValues></_>
    <_>
      <internalNodes>
        0 -1 32742 1.9235435873270035e-02</internalNodes>
      <leafValues>
        2.6432022452354431e-01 -9.0118384361267090e-01</leafValues></_>
    <_>
      <internalNodes>
        0 -1 21730 -1.3546038419008255e-02</internalNodes>
      <leafValues>
        7.4754822254180908e-01 -2.9467558860778809e-01</leafValues></_>
    <_>
      <internalNodes>
        0 -1 63218 3.6175013519823551e-03</internalNodes>
      <leafValues>
        -3.4416031837463379e-01 5.2335768938064575e-01</leafValues></_>
    <_>
      <internalNodes>
        0 -1 45742 5.1242588087916374e-03</internalNodes>
      <leafValues>
        -2.3514211177825928e-01 8.3883541822433472e-01</leafValues></_>
    <_>
      <internalNodes>
        0 -1 45034 -1.9015684956684709e-03</internalNodes>
      <leafValues>
        3.9451745152473450e-01 -5.9481358528137207e-01</leafValues></_>
    <_>
      <internalNodes>
        0 -1 12959 5.8071366511285305e-03</internalNodes>
      <leafValues>
        -2.1559470891952515e-01 7.7768528461456299e-01</leafValues></_>
    <_>
      <internalNodes>
        0 -1 58017 -1.2186804786324501e-02</internalNodes>
      <leafValues>
        6.3786751031875610e-01 -3.0890309810638428e-01</leafValues></_></weakClassifiers></stage7>
</opencv_storage>
