<?xml version="1.0"?>
<opencv_storage>
<stage1>
  <maxWeakCount>6</maxWeakCount>
  <stageThreshold>-6.6537654399871826e-01</stageThreshold>
  <weakClassifiers>
    <_>
      <internalNodes>
        0 -1 12693 7.4159294366836548e-02</internalNodes>
      <leafValues>
        -4.7239264845848083e-01 7.3619633913040161e-01</leafValues></_>
    <_>
      <internalNodes>
        0 -1 37492 1.2570987455546856e-03</internalNodes>
      <leafValues>
        -5.2881890535354614e-01 6.2722456455230713e-01</leafValues></_>
    <_>
      <internalNodes>
        0 -1 19467 5.6215338408946991e-02</internalNodes>
      <leafValues>
        -6.2200081348419189e-01 5.2932238578796387e-01</leafValues></_>
    <_>
      <internalNodes>
        0 -1 12603 1.6897593159228563e-03</internalNodes>
      <leafValues>
        -4.6015113592147827e-01 6.0207122564315796e-01</leafValues></_>
    <_>
      <internalNodes>
        0 -1 12969 8.1073474138975143e-03</internalNodes>
      <leafValues>
        -3.5843673348426819e-01 8.1209677457809448e-01</leafValues></_>
    <_>
      <internalNodes>
        0 -1 39575 4.9809105694293976e-03</internalNodes>
      <leafValues>
        -4.3712192773818970e-01 7.4282139539718628e-01</leafValues></_></weakClassifiers></stage1>
</opencv_storage>
