<?xml version="1.0"?>
<opencv_storage>
<stage4>
  <maxWeakCount>6</maxWeakCount>
  <stageThreshold>-1.4986918866634369e-01</stageThreshold>
  <weakClassifiers>
    <_>
      <internalNodes>
        0 -1 37857 -2.0735425874590874e-02</internalNodes>
      <leafValues>
        6.7930030822753906e-01 -4.7945204377174377e-01</leafValues></_>
    <_>
      <internalNodes>
        0 -1 26798 3.7278588861227036e-03</internalNodes>
      <leafValues>
        -4.5424851775169373e-01 5.1344484090805054e-01</leafValues></_>
    <_>
      <internalNodes>
        0 -1 42544 9.8994118161499500e-04</internalNodes>
      <leafValues>
        -3.6395290493965149e-01 5.8971774578094482e-01</leafValues></_>
    <_>
      <internalNodes>
        0 -1 32963 2.1059071877971292e-04</internalNodes>
      <leafValues>
        -5.6460857391357422e-01 3.5587641596794128e-01</leafValues></_>
    <_>
      <internalNodes>
        0 -1 37450 6.7544309422373772e-04</internalNodes>
      <leafValues>
        -6.2419950962066650e-01 3.3085763454437256e-01</leafValues></_>
    <_>
      <internalNodes>
        0 -1 49568 4.0098284371197224e-03</internalNodes>
      <leafValues>
        -4.9262046813964844e-01 5.1365315914154053e-01</leafValues></_></weakClassifiers></stage4>
</opencv_storage>
